0 0.0179924 0.15842 0 -0.170434 -0.0857114 0.0260395 -0.139182 0.186528 0.162751 0 0 0.207727 0 0 0 0.0395669 0.200904 0 0 0 0 0 0 -0.12747 0 0 0.0952501 0 0 
-0.0140841 0 0 0 0 -0.0399938 0 0.0419248 -0.0410535 0 -0.078448 0 -0.0902159 0 0 -0.0503509 0 0.130611 -0.148246 -0.178723 0.148474 0 0 0 -0.120566 -0.0391744 -0.042911 0 0.128653 0 
-0.162412 0 -0.0400113 0 -0.124003 0 0 0.0657282 -0.0584756 -0.0315746 0 0.200853 0 0.201672 0.169625 0 0 -0.0473687 0 0 0 0 0.0599746 0.052943 0.188907 0.193178 -0.193907 0.149172 0 0 
0 0 -0.106783 0.199917 -0.00456814 0 0 -0.141595 0 0 -0.00936517 -0.00589108 0 -0.165565 -0.181381 0 0 0 0.122902 0 0 0.0874133 0 0 -0.0102941 0 0 -0.105374 0 0 
0 -0.0283574 0 -0.037908 -0.0536829 -0.0920363 0 0 0 0 -0.121342 0.0513502 -0.147804 0 0 0 0 0.190767 0 -0.127224 0 0.0510414 -0.139663 -0.0966358 0 0 0 0.111954 0.100359 -0.201583 
-0.125432 0 0.133398 0 -0.0226843 -0.146451 -0.10152 0 -0.0161271 0 -0.177703 0.0165847 0 -0.160986 0 -0.108901 0 0 0 0 0.173351 0.0677505 0.0599613 -0.0718664 0 -0.00570013 0.204293 -0.0968476 0.193806 0.0104628 
-0.136633 0 0 0 0 0.0187142 0.130117 0 0.157566 0 0.0126995 0 0.185565 0.0392365 0.0873168 0 0.130078 0 0 -0.149995 0 -0.0740101 0 0.0536055 -0.0710367 0 -0.153537 0 0 -0.15922 
0 0 -0.162764 0 0.0890901 0 0.18916 0.103458 0.147009 0.0423883 -0.17197 0 0.0685247 0 0 0 0.202758 0 0.0960364 0.0175745 0 0.0232376 0 0 -0.14236 0.0952975 -0.188767 0 0.170858 -0.143663 
-0.183725 -0.0782626 0.0593162 0.0949044 0.0241743 0.117797 0.212071 0 0 0.158609 0.143786 -0.109669 0 0 -0.134772 0.176315 0 -0.179965 0.166482 0 0.0512814 -0.0716791 0 0.165112 0 0 0 0 0.12423 -0.15577 
0 0 0 0.146442 0 0 0 0 -0.16486 0 0 0.10353 0 -0.0578061 0.0555319 0.0377054 0.173421 0 -0.167317 0 0.206577 -0.0633497 0 0 0.0202318 0 0 0.18045 0 0.117498 
-0.112652 0 0 0 0 -0.142526 0 0.078118 0 -0.0537661 0.0901602 0.0390489 -0.12477 -0.0611545 0 0 0.0400371 0 0.169023 0.192553 -0.0680207 -0.198671 -0.0610499 -0.195988 -0.117903 -0.0222774 -0.171636 0.150991 0 -0.00319255 
0 0 0 0.120386 0 -0.127258 0 -0.0826274 0.201727 0 -0.209561 0 0 0 0 -0.185678 0 0 0 0 -0.186473 0 0.0229518 -0.17243 0 0 0.00147926 -0.179303 -0.188677 -0.207961 
-0.199961 0 0.0211636 0.160948 0.119121 -0.046433 0 0.114432 -0.123433 0 0 0.037459 -0.141876 0.157197 0 0.190511 0.0841141 0 0 -0.0587625 0 0 0.190559 -0.203916 0 0 0 0 -0.135917 0.189094 
0 0 0.156401 0.159353 0 0 0 0 0.210584 0.104682 0.144454 0 0 -0.204296 -0.10591 0 0.143577 0 0 0.055991 0.00734581 0.0352728 0.118716 0 0.0217184 0 0.197512 0 0 0 
0 0 0.175958 0 0.184278 0.115836 0.0500793 -0.032026 0 -0.188652 0.0850115 0 0 0 0.0554587 -0.0859018 0.0726959 0 0 -0.0688223 -0.0390544 0 0 0.116946 0 0.0201652 0 0 -0.0482326 -0.06799 
0.136887 -0.037987 0.197991 0.171521 -0.0188919 0 0.0927181 0 0 0 -0.0502429 0 0 0 0 0.198007 0.068765 0 0 0 -0.157439 0.129993 0.170895 0 -0.18733 -0.158623 -0.14404 0 0.0748822 0 
-0.071322 0.0421053 0.0697984 0 0 0 -0.0403409 0 -0.0198086 -0.112534 0 0 0 0 0 0.172639 0.0712335 0.0727683 0.0655312 0 0 0 0 0 0.0948682 -0.116441 0.0676967 0.158039 0.0628173 0 
0 -0.097931 -0.0900509 0.186919 -0.203176 0 0 0 0 -0.171227 0 -0.195303 0.0165068 0.157491 0.131519 -0.115905 -0.123942 0.212248 0.00376237 0 0.178833 0 0 0 0 -0.0809901 -0.0489227 0 -0.00753257 0.0520371 
0 -0.144073 0.176679 0 0 0.194271 0 0 -0.099529 -0.207481 0 0.183968 0.0924116 0 0 0 0 0 0.0137663 0.0111747 0 -0.191661 0 0 -0.0464179 0 0 0 0 -0.168346 
0.0440335 0 0 0.168567 0 0 0 -0.0475615 0 0 0 0.0456512 0.145874 -0.0645451 0.0055026 0 0.171702 0 0 0 0 0 0 0 0 0 0.132413 0.0270629 -0.10212 -0.0978626 
0 0 0.148571 0 0.0818271 0 0 0.114474 0.056332 0 0.10673 0.105211 0.157795 0 0.0513634 -0.17937 0 0 0.0113796 0 -0.187366 0 0.173822 0 0 -0.0196805 -0.133546 0 0.135403 0 
0 -0.163342 0 0 -0.18112 0.0458165 -0.160946 0 0 -0.0419217 -0.0802994 0.00804251 0 0.092008 0.200184 0 -0.145979 0 0.202042 0 0 -0.040486 0 -0.0460329 0 0 0 -0.00599123 -0.0485635 0 
0.181119 0 0 0.166165 -0.144065 -0.180008 0 -0.11337 0 -0.123946 0 0 -0.0348641 -0.181091 0.0202636 0 0 0 0 -0.150289 0.195164 -0.0551752 0 0 0.128096 0 0 -0.208427 0 0 
-0.136707 0 -0.188343 0 0.0991479 0 -0.0932056 0 -0.194931 -0.0136926 -0.211856 -0.101773 -0.160709 0.0565759 0 -0.0283904 0 -0.0678653 -0.127324 0 0.190489 -0.0828014 -0.0811507 0 0 -0.196502 0 0 -0.0677336 0 
0.113738 0.179343 0.152407 0.133033 0.207529 0 0 0 0.204948 0 0 0 -0.185286 0.0988757 -0.156574 0.0231718 0.193083 -0.0657315 0 0 0 0 -0.211582 -0.157899 -0.200893 -0.0300412 0 0.193893 -0.0882341 0 
0.0917923 0 0 0 0.168361 0.148968 0 0 -0.107986 0.044591 0 -0.13661 0 -0.0818924 0 -0.0322632 0.17097 0.0263577 0 0 -0.0366422 -0.188728 0 -0.0629325 -0.171409 0.201781 -0.146681 -0.076292 0 0 
0 0 0 0 0 0 0.0723783 0 0 -0.0911848 0.0855853 0 0 0 -0.204542 0.200155 -0.211833 -0.183959 0 0 -0.151263 0 0.135141 0.131139 0 0.181132 0.188355 -0.160217 0 0 
-0.134503 -0.0461573 0 0 0 -0.175622 0.0720302 0.0300708 0.0374594 0.0584136 0 -0.0190625 0 0 0.202191 -0.0420814 -0.165814 0 -0.193409 0.0359541 -0.0143953 0 0 -0.206365 0 0 -0.21002 -0.137276 0 0.133755 
0 0 0 -0.182828 0.190722 0.0777257 0 -0.124572 0 -0.0928104 -0.115407 0 0 0.0529342 0.0568913 0 0.0594886 -0.180525 0.112406 0.00186287 0 -0.00960588 0 -0.0315011 -0.159779 0.0174761 0.0257892 0 0 0 
0 0.0478341 0.206418 0.202836 0 0.0497079 0 0.149253 0 0 -0.208787 0.14151 -0.0885894 0 0 0.0219242 0.105131 0 0 0.0107133 0.0940703 0 0 0 0 0 0.0805213 0.0600873 -0.0888908 0 
